-0.353553
0.353553
0.353553
-0.353553
0.353553
-0.353553
0.353553
-0.353553
-0.353553
0.353553
-0.353553
0.353553
0.353553
-0.353553
-0.353553
0.353553
-0.353553
0.353553
-0.353553
0.353553
0.353553
-0.353553
0.353553
-0.353553
0.353553
-0.353553
-0.353553
0.353553
-0.353553
0.353553
-0.353553
0.353553
0.353553
-0.353553
0.353553
-0.353553
-0.353553
0.353553
0.353553
-0.353553
0.353553
-0.353553
0.353553
-0.353553
-0.353553
0.353553
-0.353553
0.353553
0.353553
-0.353553
-0.353553
0.353553
-0.353553
0.353553
-0.353553
0.353553
0.353553
-0.353553
0.353553
-0.353553
-0.353553
0.353553
0.353553
-0.353553
0.353553
-0.353553
0.353553
-0.353553
-0.353553
0.353553
-0.353553
0.353553
0.353553
-0.353553
-0.353553
0.353553
-0.353553
0.353553
-0.353553
0.353553
0.353553
-0.353553
0.353553
-0.353553
-0.353553
0.353553
0.353553
-0.353553
0.353553
-0.353553
0.353553
-0.353553
-0.353553
0.353553
-0.353553
0.353553
-0.353553
0.353553
0.353553
-0.353553
0.353553
-0.353553
0.353553
-0.353553
-0.353553
0.353553
-0.353553
0.353553
0.353553
-0.353553
-0.353553
0.353553
-0.353553
0.353553
-0.353553
0.353553
0.353553
-0.353553
0.353553
-0.353553
-0.353553
0.353553
0.353553
-0.353553
0.353553
-0.353553
0.353553
-0.353553
-0.353553
0.353553
-0.353553
0.353553
0.353553
-0.353553
-0.353553
0.353553
-0.353553
0.353553
-0.353553
0.353553
0.353553
-0.353553
0.353553
-0.353553
0.353553
-0.353553
-0.353553
0.353553
-0.353553
0.353553
-0.353553
0.353553
0.353553
-0.353553
0.353553
-0.353553
-0.353553
0.353553
0.353553
-0.353553
0.353553
-0.353553
0.353553
-0.353553
-0.353553
0.353553
-0.353553
0.353553
-0.353553
0.353553
0.353553
-0.353553
0.353553
-0.353553
0.353553
-0.353553
-0.353553
0.353553
-0.353553
0.353553
0.353553
-0.353553
-0.353553
0.353553
-0.353553
0.353553
-0.353553
0.353553
0.353553
-0.353553
0.353553
-0.353553
-0.353553
0.353553
0.353553
-0.353553
0.353553
-0.353553
0.353553
-0.353553
-0.353553
0.353553
-0.353553
0.353553
0.353553
-0.353553
-0.353553
0.353553
-0.353553
0.353553
-0.353553
0.353553
0.353553
-0.353553
0.353553
-0.353553
-0.353553
0.353553
0.353553
-0.353553
0.353553
-0.353553
0.353553
-0.353553
-0.353553
0.353553
-0.353553
0.353553
0.353553
-0.353553
-0.353553
0.353553
-0.353553
0.353553
-0.353553
0.353553
0.353553
-0.353553
0.353553
-0.353553
0.353553
-0.353553
-0.353553
0.353553
-0.353553
0.353553
-0.353553
0.353553
0.353553
-0.353553
0.353553
-0.353553
-0.353553
0.353553
0.353553
-0.353553
0.353553
-0.353553
0.353553
-0.353553
-0.353553
0.353553
-0.353553
0.353553
0.353553
-0.353553
-0.353553
0.353553
-0.353553
0.353553
-0.353553
0.353553
0.353553
-0.353553
0.353553
-0.353553
-0.353553
0.353553
0.353553
-0.353553
0.353553
-0.353553
0.353553
-0.353553
-0.353553
0.353553
-0.353553
0.353553
0.5
-0.5
-0.5
0.5
-0.5
0.5
-0.5
0.5
0.5
-0.5
0.5
-0.5
-0.5
0.5
0.5
-0.5
0.5
-0.5
0.5
-0.5
-0.5
0.5
-0.5
0.5
-0.5
0.5
0.5
-0.5
0.5
-0.5
0.5
-0.5
-0.5
0.5
-0.5
0.5
0.5
-0.5
-0.5
0.5
-0.5
0.5
-0.5
0.5
0.5
-0.5
0.5
-0.5
-0.5
0.5
0.5
-0.5
0.5
-0.5
0.5
-0.5
-0.5
0.5
-0.5
0.5
0.5
-0.5
-0.5
0.5
-0.5
0.5
-0.5
0.5
0.5
-0.5
0.5
-0.5
-0.5
0.5
0.5
-0.5
0.5
-0.5
0.5
-0.5
-0.5
0.5
-0.5
0.5
0.5
-0.5
-0.5
0.5
-0.5
0.5
-0.5
0.5
0.5
-0.5
0.5
-0.5
0.5
-0.5
-0.5
0.5
-0.5
0.5
-0.5
0.5
0.5
-0.5
0.5
-0.5
-0.5
0.5
0.5
-0.5
0.5
-0.5
0.5
-0.5
-0.5
0.5
-0.5
0.5
0.5
-0.5
-0.5
0.5
-0.5
0.5
-0.5
0.5
0.5
-0.5
0.5
-0.5
-0.5
0.5
0.5
-0.5
0.5
-0.5
0.5
-0.5
-0.5
0.5
-0.5
0.5
0
0
0
0
0
0
0
0
0
0
0
0
0
0
0
0
0
0
0
0
0
0
0
0
0
0
0
0
0
0
0
0
0
0
0
0
0
0
0
0
0
0
0
0
0
0
0
0
0
0
0
0
0
0
0
0
0
0
0
0
0
0
0
0
0
0
0
0
0
0
0
0
0
0
0
0
0
0
0
0
0
0
0
0
0
0
0
0
0
0
0
0
0
0
0
0
0
0
0
0
0
0
0
0
0
0
0
0
0
0
0
0
0
0
0
0
0
0
0
0
0
0
0
0
0
0
0
0
0
0
0
0
0
0
0
0
0
0
0
0
0
0
0
0
-0.353553
0.353553
0.353553
-0.353553
0.353553
-0.353553
0.353553
-0.353553
-0.353553
0.353553
-0.353553
0.353553
0.353553
-0.353553
-0.353553
0.353553
-0.353553
0.353553
-0.353553
0.353553
0.353553
-0.353553
0.353553
-0.353553
0.353553
-0.353553
-0.353553
0.353553
-0.353553
0.353553
-0.353553
0.353553
0.353553
-0.353553
0.353553
-0.353553
-0.353553
0.353553
0.353553
-0.353553
0.353553
-0.353553
0.353553
-0.353553
-0.353553
0.353553
-0.353553
0.353553
0.353553
-0.353553
-0.353553
0.353553
-0.353553
0.353553
-0.353553
0.353553
0.353553
-0.353553
0.353553
-0.353553
-0.353553
0.353553
0.353553
-0.353553
0.353553
-0.353553
0.353553
-0.353553
-0.353553
0.353553
-0.353553
0.353553
0.353553
-0.353553
-0.353553
0.353553
-0.353553
0.353553
-0.353553
0.353553
0.353553
-0.353553
0.353553
-0.353553
-0.353553
0.353553
0.353553
-0.353553
0.353553
-0.353553
0.353553
-0.353553
-0.353553
0.353553
-0.353553
0.353553
-0.353553
0.353553
0.353553
-0.353553
0.353553
-0.353553
0.353553
-0.353553
-0.353553
0.353553
-0.353553
0.353553
0.353553
-0.353553
-0.353553
0.353553
-0.353553
0.353553
-0.353553
0.353553
0.353553
-0.353553
0.353553
-0.353553
-0.353553
0.353553
0.353553
-0.353553
0.353553
-0.353553
0.353553
-0.353553
-0.353553
0.353553
-0.353553
0.353553
0.353553
-0.353553
-0.353553
0.353553
-0.353553
0.353553
-0.353553
0.353553
0.353553
-0.353553
0.353553
-0.353553
-0.353553
0.353553
0.353553
-0.353553
0.353553
-0.353553
0.353553
-0.353553
-0.353553
0.353553
-0.353553
0.353553
0.353553
-0.353553
-0.353553
0.353553
-0.353553
0.353553
-0.353553
0.353553
0.353553
-0.353553
0.353553
-0.353553
0.353553
-0.353553
-0.353553
0.353553
-0.353553
0.353553
-0.353553
0.353553
0.353553
-0.353553
0.353553
-0.353553
-0.353553
0.353553
0.353553
-0.353553
0.353553
-0.353553
0.353553
-0.353553
-0.353553
0.353553
-0.353553
0.353553
0.353553
-0.353553
-0.353553
0.353553
-0.353553
0.353553
-0.353553
0.353553
0.353553
-0.353553
0.353553
-0.353553
-0.353553
0.353553
0.353553
-0.353553
0.353553
-0.353553
0.353553
-0.353553
-0.353553
0.353553
-0.353553
0.353553
0.353553
-0.353553
-0.353553
0.353553
-0.353553
0.353553
-0.353553
0.353553
0.353553
-0.353553
0.353553
-0.353553
-0.353553
0.353553
0.353553
-0.353553
0.353553
-0.353553
0.353553
-0.353553
-0.353553
0.353553
-0.353553
0.353553
-0.353553
0.353553
0.353553
-0.353553
0.353553
-0.353553
0.353553
-0.353553
-0.353553
0.353553
-0.353553
0.353553
0.353553
-0.353553
-0.353553
0.353553
-0.353553
0.353553
-0.353553
0.353553
0.353553
-0.353553
0.353553
-0.353553
-0.353553
0.353553
0.353553
-0.353553
0.353553
-0.353553
0.353553
-0.353553
-0.353553
0.353553
-0.353553
0.353553
0.353553
-0.353553
-0.353553
0.353553
-0.353553
0.353553
-0.353553
0.353553
0.353553
-0.353553
0.353553
-0.353553
0.5
-0.5
-0.5
0.5
-0.5
0.5
-0.5
0.5
0.5
-0.5
0.5
-0.5
-0.5
0.5
0.5
-0.5
0.5
-0.5
0.5
-0.5
-0.5
0.5
-0.5
0.5
-0.5
0.5
0.5
-0.5
0.5
-0.5
0.5
-0.5
-0.5
0.5
-0.5
0.5
0.5
-0.5
-0.5
0.5
-0.5
0.5
-0.5
0.5
0.5
-0.5
0.5
-0.5
-0.5
0.5
0.5
-0.5
0.5
-0.5
0.5
-0.5
-0.5
0.5
-0.5
0.5
0.5
-0.5
-0.5
0.5
-0.5
0.5
-0.5
0.5
0.5
-0.5
0.5
-0.5
-0.5
0.5
0.5
-0.5
0.5
-0.5
0.5
-0.5
-0.5
0.5
-0.5
0.5
0.5
-0.5
-0.5
0.5
-0.5
0.5
-0.5
0.5
0.5
-0.5
0.5
-0.5
0.5
-0.5
-0.5
0.5
-0.5
0.5
-0.5
0.5
0.5
-0.5
0.5
-0.5
-0.5
0.5
0.5
-0.5
0.5
-0.5
0.5
-0.5
-0.5
0.5
-0.5
0.5
0.5
-0.5
-0.5
0.5
-0.5
0.5
-0.5
0.5
0.5
-0.5
0.5
-0.5
-0.5
0.5
0.5
-0.5
0.5
-0.5
0.5
-0.5
-0.5
0.5
-0.5
0.5
0
0
0
0
0
0
0
0
0
0
0
0
0
0
0
0
0
0
0
0
0
0
0
0
0
0
0
0
0
0
0
0
0
0
0
0
0
0
0
0
0
0
0
0
0
0
0
0
0
0
0
0
0
0
0
0
0
0
0
0
0
0
0
0
0
0
0
0
0
0
0
0
0
0
0
0
0
0
0
0
0
0
0
0
0
0
0
0
0
0
0
0
0
0
0
0
0
0
0
0
0
0
0
0
0
0
0
0
0
0
0
0
0
0
0
0
0
0
0
0
0
0
0
0
0
0
0
0
0
0
0
0
0
0
0
0
0
0
0
0
0
0
0
0
